digraph Tree {
node [shape=box, style="filled, rounded", color="black", fontname=helvetica] ;
edge [fontname=helvetica] ;
0 [label=<X<SUB>14</SUB> &le; 0.5<br/>entropy = 0.963<br/>samples = 623<br/>value = [382, 241]>, fillcolor="#f5d0b6"] ;
1 [label=<X<SUB>13</SUB> &le; 0.5<br/>entropy = 0.692<br/>samples = 393<br/>value = [320, 73]>, fillcolor="#eb9e66"] ;
0 -> 1 [labeldistance=2.5, labelangle=45, headlabel="True"] ;
2 [label=<X<SUB>0</SUB> &le; 18.0<br/>entropy = 0.965<br/>samples = 82<br/>value = [50, 32]>, fillcolor="#f6d2b8"] ;
1 -> 2 ;
3 [label=<entropy = 0.0<br/>samples = 5<br/>value = [0, 5]>, fillcolor="#399de5"] ;
2 -> 3 ;
4 [label=<X<SUB>1</SUB> &le; 7.9<br/>entropy = 0.935<br/>samples = 77<br/>value = [50, 27]>, fillcolor="#f3c5a4"] ;
2 -> 4 ;
5 [label=<entropy = 0.0<br/>samples = 7<br/>value = [7, 0]>, fillcolor="#e58139"] ;
4 -> 5 ;
6 [label=<X<SUB>1</SUB> &le; 31.66<br/>entropy = 0.962<br/>samples = 70<br/>value = [43, 27]>, fillcolor="#f5d0b5"] ;
4 -> 6 ;
7 [label=<X<SUB>0</SUB> &le; 43.5<br/>entropy = 0.983<br/>samples = 26<br/>value = [11, 15]>, fillcolor="#cae5f8"] ;
6 -> 7 ;
8 [label=<X<SUB>9</SUB> &le; 0.5<br/>entropy = 0.811<br/>samples = 16<br/>value = [4, 12]>, fillcolor="#7bbeee"] ;
7 -> 8 ;
9 [label=<X<SUB>1</SUB> &le; 29.85<br/>entropy = 0.946<br/>samples = 11<br/>value = [4, 7]>, fillcolor="#aad5f4"] ;
8 -> 9 ;
10 [label=<X<SUB>0</SUB> &le; 28.941<br/>entropy = 0.918<br/>samples = 6<br/>value = [4, 2]>, fillcolor="#f2c09c"] ;
9 -> 10 ;
11 [label=<entropy = 0.0<br/>samples = 1<br/>value = [0, 1]>, fillcolor="#399de5"] ;
10 -> 11 ;
12 [label=<X<SUB>1</SUB> &le; 19.5<br/>entropy = 0.722<br/>samples = 5<br/>value = [4, 1]>, fillcolor="#eca06a"] ;
10 -> 12 ;
13 [label=<entropy = 1.0<br/>samples = 2<br/>value = [1, 1]>, fillcolor="#ffffff"] ;
12 -> 13 ;
14 [label=<entropy = 0.0<br/>samples = 3<br/>value = [3, 0]>, fillcolor="#e58139"] ;
12 -> 14 ;
15 [label=<entropy = 0.0<br/>samples = 5<br/>value = [0, 5]>, fillcolor="#399de5"] ;
9 -> 15 ;
16 [label=<entropy = 0.0<br/>samples = 5<br/>value = [0, 5]>, fillcolor="#399de5"] ;
8 -> 16 ;
17 [label=<X<SUB>0</SUB> &le; 72.5<br/>entropy = 0.881<br/>samples = 10<br/>value = [7, 3]>, fillcolor="#f0b78e"] ;
7 -> 17 ;
18 [label=<X<SUB>0</SUB> &le; 54.0<br/>entropy = 0.764<br/>samples = 9<br/>value = [7, 2]>, fillcolor="#eca572"] ;
17 -> 18 ;
19 [label=<X<SUB>0</SUB> &le; 47.5<br/>entropy = 0.971<br/>samples = 5<br/>value = [3, 2]>, fillcolor="#f6d5bd"] ;
18 -> 19 ;
20 [label=<entropy = 0.0<br/>samples = 3<br/>value = [3, 0]>, fillcolor="#e58139"] ;
19 -> 20 ;
21 [label=<entropy = 0.0<br/>samples = 2<br/>value = [0, 2]>, fillcolor="#399de5"] ;
19 -> 21 ;
22 [label=<entropy = 0.0<br/>samples = 4<br/>value = [4, 0]>, fillcolor="#e58139"] ;
18 -> 22 ;
23 [label=<entropy = 0.0<br/>samples = 1<br/>value = [0, 1]>, fillcolor="#399de5"] ;
17 -> 23 ;
24 [label=<X<SUB>1</SUB> &le; 102.177<br/>entropy = 0.845<br/>samples = 44<br/>value = [32, 12]>, fillcolor="#efb083"] ;
6 -> 24 ;
25 [label=<X<SUB>2</SUB> &le; 0.5<br/>entropy = 0.9<br/>samples = 38<br/>value = [26, 12]>, fillcolor="#f1bb94"] ;
24 -> 25 ;
26 [label=<X<SUB>0</SUB> &le; 43.0<br/>entropy = 0.75<br/>samples = 28<br/>value = [22, 6]>, fillcolor="#eca36f"] ;
25 -> 26 ;
27 [label=<X<SUB>0</SUB> &le; 37.5<br/>entropy = 0.94<br/>samples = 14<br/>value = [9, 5]>, fillcolor="#f3c7a7"] ;
26 -> 27 ;
28 [label=<X<SUB>19</SUB> &le; 1.5<br/>entropy = 0.811<br/>samples = 12<br/>value = [9, 3]>, fillcolor="#eeab7b"] ;
27 -> 28 ;
29 [label=<entropy = 0.684<br/>samples = 11<br/>value = [9, 2]>, fillcolor="#eb9d65"] ;
28 -> 29 ;
30 [label=<entropy = 0.0<br/>samples = 1<br/>value = [0, 1]>, fillcolor="#399de5"] ;
28 -> 30 ;
31 [label=<entropy = 0.0<br/>samples = 2<br/>value = [0, 2]>, fillcolor="#399de5"] ;
27 -> 31 ;
32 [label=<X<SUB>7</SUB> &le; 0.5<br/>entropy = 0.371<br/>samples = 14<br/>value = [13, 1]>, fillcolor="#e78b48"] ;
26 -> 32 ;
33 [label=<entropy = 0.0<br/>samples = 10<br/>value = [10, 0]>, fillcolor="#e58139"] ;
32 -> 33 ;
34 [label=<X<SUB>0</SUB> &le; 47.5<br/>entropy = 0.811<br/>samples = 4<br/>value = [3, 1]>, fillcolor="#eeab7b"] ;
32 -> 34 ;
35 [label=<entropy = 0.0<br/>samples = 3<br/>value = [3, 0]>, fillcolor="#e58139"] ;
34 -> 35 ;
36 [label=<entropy = 0.0<br/>samples = 1<br/>value = [0, 1]>, fillcolor="#399de5"] ;
34 -> 36 ;
37 [label=<X<SUB>0</SUB> &le; 62.5<br/>entropy = 0.971<br/>samples = 10<br/>value = [4, 6]>, fillcolor="#bddef6"] ;
25 -> 37 ;
38 [label=<X<SUB>0</SUB> &le; 47.0<br/>entropy = 0.811<br/>samples = 8<br/>value = [2, 6]>, fillcolor="#7bbeee"] ;
37 -> 38 ;
39 [label=<X<SUB>8</SUB> &le; 0.5<br/>entropy = 1.0<br/>samples = 4<br/>value = [2, 2]>, fillcolor="#ffffff"] ;
38 -> 39 ;
40 [label=<entropy = 0.918<br/>samples = 3<br/>value = [2, 1]>, fillcolor="#f2c09c"] ;
39 -> 40 ;
41 [label=<entropy = 0.0<br/>samples = 1<br/>value = [0, 1]>, fillcolor="#399de5"] ;
39 -> 41 ;
42 [label=<entropy = 0.0<br/>samples = 4<br/>value = [0, 4]>, fillcolor="#399de5"] ;
38 -> 42 ;
43 [label=<entropy = 0.0<br/>samples = 2<br/>value = [2, 0]>, fillcolor="#e58139"] ;
37 -> 43 ;
44 [label=<entropy = 0.0<br/>samples = 6<br/>value = [6, 0]>, fillcolor="#e58139"] ;
24 -> 44 ;
45 [label=<X<SUB>0</SUB> &le; 0.915<br/>entropy = 0.562<br/>samples = 311<br/>value = [270, 41]>, fillcolor="#e99457"] ;
1 -> 45 ;
46 [label=<entropy = 0.0<br/>samples = 4<br/>value = [0, 4]>, fillcolor="#399de5"] ;
45 -> 46 ;
47 [label=<X<SUB>19</SUB> &le; 3.5<br/>entropy = 0.531<br/>samples = 307<br/>value = [270, 37]>, fillcolor="#e99254"] ;
45 -> 47 ;
48 [label=<X<SUB>0</SUB> &le; 9.5<br/>entropy = 0.551<br/>samples = 290<br/>value = [253, 37]>, fillcolor="#e99356"] ;
47 -> 48 ;
49 [label=<entropy = 0.0<br/>samples = 4<br/>value = [0, 4]>, fillcolor="#399de5"] ;
48 -> 49 ;
50 [label=<X<SUB>1</SUB> &le; 26.4<br/>entropy = 0.516<br/>samples = 286<br/>value = [253, 33]>, fillcolor="#e89153"] ;
48 -> 50 ;
51 [label=<X<SUB>0</SUB> &le; 14.0<br/>entropy = 0.473<br/>samples = 257<br/>value = [231, 26]>, fillcolor="#e88f4f"] ;
50 -> 51 ;
52 [label=<X<SUB>0</SUB> &le; 11.5<br/>entropy = 1.0<br/>samples = 2<br/>value = [1, 1]>, fillcolor="#ffffff"] ;
51 -> 52 ;
53 [label=<entropy = 0.0<br/>samples = 1<br/>value = [1, 0]>, fillcolor="#e58139"] ;
52 -> 53 ;
54 [label=<entropy = 0.0<br/>samples = 1<br/>value = [0, 1]>, fillcolor="#399de5"] ;
52 -> 54 ;
55 [label=<X<SUB>1</SUB> &le; 15.373<br/>entropy = 0.463<br/>samples = 255<br/>value = [230, 25]>, fillcolor="#e88f4f"] ;
51 -> 55 ;
56 [label=<X<SUB>1</SUB> &le; 15.173<br/>entropy = 0.494<br/>samples = 213<br/>value = [190, 23]>, fillcolor="#e89051"] ;
55 -> 56 ;
57 [label=<X<SUB>1</SUB> &le; 13.931<br/>entropy = 0.481<br/>samples = 212<br/>value = [190, 22]>, fillcolor="#e89050"] ;
56 -> 57 ;
58 [label=<entropy = 0.5<br/>samples = 200<br/>value = [178, 22]>, fillcolor="#e89151"] ;
57 -> 58 ;
59 [label=<entropy = 0.0<br/>samples = 12<br/>value = [12, 0]>, fillcolor="#e58139"] ;
57 -> 59 ;
60 [label=<entropy = 0.0<br/>samples = 1<br/>value = [0, 1]>, fillcolor="#399de5"] ;
56 -> 60 ;
61 [label=<X<SUB>1</SUB> &le; 22.887<br/>entropy = 0.276<br/>samples = 42<br/>value = [40, 2]>, fillcolor="#e68743"] ;
55 -> 61 ;
62 [label=<entropy = 0.0<br/>samples = 22<br/>value = [22, 0]>, fillcolor="#e58139"] ;
61 -> 62 ;
63 [label=<X<SUB>1</SUB> &le; 23.35<br/>entropy = 0.469<br/>samples = 20<br/>value = [18, 2]>, fillcolor="#e88f4f"] ;
61 -> 63 ;
64 [label=<entropy = 0.0<br/>samples = 1<br/>value = [0, 1]>, fillcolor="#399de5"] ;
63 -> 64 ;
65 [label=<entropy = 0.297<br/>samples = 19<br/>value = [18, 1]>, fillcolor="#e68844"] ;
63 -> 65 ;
66 [label=<X<SUB>17</SUB> &le; 0.5<br/>entropy = 0.797<br/>samples = 29<br/>value = [22, 7]>, fillcolor="#eda978"] ;
50 -> 66 ;
67 [label=<X<SUB>2</SUB> &le; 0.5<br/>entropy = 0.902<br/>samples = 22<br/>value = [15, 7]>, fillcolor="#f1bc95"] ;
66 -> 67 ;
68 [label=<X<SUB>0</SUB> &le; 53.0<br/>entropy = 1.0<br/>samples = 12<br/>value = [6, 6]>, fillcolor="#ffffff"] ;
67 -> 68 ;
69 [label=<X<SUB>0</SUB> &le; 30.941<br/>entropy = 0.971<br/>samples = 10<br/>value = [4, 6]>, fillcolor="#bddef6"] ;
68 -> 69 ;
70 [label=<entropy = 0.918<br/>samples = 6<br/>value = [4, 2]>, fillcolor="#f2c09c"] ;
69 -> 70 ;
71 [label=<entropy = 0.0<br/>samples = 4<br/>value = [0, 4]>, fillcolor="#399de5"] ;
69 -> 71 ;
72 [label=<entropy = 0.0<br/>samples = 2<br/>value = [2, 0]>, fillcolor="#e58139"] ;
68 -> 72 ;
73 [label=<X<SUB>1</SUB> &le; 27.135<br/>entropy = 0.469<br/>samples = 10<br/>value = [9, 1]>, fillcolor="#e88f4f"] ;
67 -> 73 ;
74 [label=<entropy = 0.0<br/>samples = 1<br/>value = [0, 1]>, fillcolor="#399de5"] ;
73 -> 74 ;
75 [label=<entropy = 0.0<br/>samples = 9<br/>value = [9, 0]>, fillcolor="#e58139"] ;
73 -> 75 ;
76 [label=<entropy = 0.0<br/>samples = 7<br/>value = [7, 0]>, fillcolor="#e58139"] ;
66 -> 76 ;
77 [label=<entropy = 0.0<br/>samples = 17<br/>value = [17, 0]>, fillcolor="#e58139"] ;
47 -> 77 ;
78 [label=<X<SUB>18</SUB> &le; 0.5<br/>entropy = 0.841<br/>samples = 230<br/>value = [62, 168]>, fillcolor="#82c1ef"] ;
0 -> 78 [labeldistance=2.5, labelangle=-45, headlabel="False"] ;
79 [label=<X<SUB>1</SUB> &le; 28.856<br/>entropy = 0.292<br/>samples = 117<br/>value = [6, 111]>, fillcolor="#44a2e6"] ;
78 -> 79 ;
80 [label=<X<SUB>0</SUB> &le; 37.0<br/>entropy = 0.503<br/>samples = 45<br/>value = [5, 40]>, fillcolor="#52a9e8"] ;
79 -> 80 ;
81 [label=<X<SUB>1</SUB> &le; 22.0<br/>entropy = 0.196<br/>samples = 33<br/>value = [1, 32]>, fillcolor="#3fa0e6"] ;
80 -> 81 ;
82 [label=<X<SUB>1</SUB> &le; 20.25<br/>entropy = 0.353<br/>samples = 15<br/>value = [1, 14]>, fillcolor="#47a4e7"] ;
81 -> 82 ;
83 [label=<entropy = 0.0<br/>samples = 12<br/>value = [0, 12]>, fillcolor="#399de5"] ;
82 -> 83 ;
84 [label=<X<SUB>0</SUB> &le; 28.5<br/>entropy = 0.918<br/>samples = 3<br/>value = [1, 2]>, fillcolor="#9ccef2"] ;
82 -> 84 ;
85 [label=<entropy = 0.0<br/>samples = 1<br/>value = [1, 0]>, fillcolor="#e58139"] ;
84 -> 85 ;
86 [label=<entropy = 0.0<br/>samples = 2<br/>value = [0, 2]>, fillcolor="#399de5"] ;
84 -> 86 ;
87 [label=<entropy = 0.0<br/>samples = 18<br/>value = [0, 18]>, fillcolor="#399de5"] ;
81 -> 87 ;
88 [label=<X<SUB>9</SUB> &le; 0.5<br/>entropy = 0.918<br/>samples = 12<br/>value = [4, 8]>, fillcolor="#9ccef2"] ;
80 -> 88 ;
89 [label=<X<SUB>1</SUB> &le; 28.217<br/>entropy = 0.845<br/>samples = 11<br/>value = [3, 8]>, fillcolor="#83c2ef"] ;
88 -> 89 ;
90 [label=<X<SUB>0</SUB> &le; 39.0<br/>entropy = 0.722<br/>samples = 10<br/>value = [2, 8]>, fillcolor="#6ab6ec"] ;
89 -> 90 ;
91 [label=<entropy = 0.0<br/>samples = 1<br/>value = [1, 0]>, fillcolor="#e58139"] ;
90 -> 91 ;
92 [label=<X<SUB>1</SUB> &le; 24.5<br/>entropy = 0.503<br/>samples = 9<br/>value = [1, 8]>, fillcolor="#52a9e8"] ;
90 -> 92 ;
93 [label=<entropy = 0.0<br/>samples = 6<br/>value = [0, 6]>, fillcolor="#399de5"] ;
92 -> 93 ;
94 [label=<X<SUB>17</SUB> &le; 0.5<br/>entropy = 0.918<br/>samples = 3<br/>value = [1, 2]>, fillcolor="#9ccef2"] ;
92 -> 94 ;
95 [label=<entropy = 0.0<br/>samples = 1<br/>value = [0, 1]>, fillcolor="#399de5"] ;
94 -> 95 ;
96 [label=<X<SUB>0</SUB> &le; 47.0<br/>entropy = 1.0<br/>samples = 2<br/>value = [1, 1]>, fillcolor="#ffffff"] ;
94 -> 96 ;
97 [label=<entropy = 0.0<br/>samples = 1<br/>value = [1, 0]>, fillcolor="#e58139"] ;
96 -> 97 ;
98 [label=<entropy = 0.0<br/>samples = 1<br/>value = [0, 1]>, fillcolor="#399de5"] ;
96 -> 98 ;
99 [label=<entropy = 0.0<br/>samples = 1<br/>value = [1, 0]>, fillcolor="#e58139"] ;
89 -> 99 ;
100 [label=<entropy = 0.0<br/>samples = 1<br/>value = [1, 0]>, fillcolor="#e58139"] ;
88 -> 100 ;
101 [label=<X<SUB>0</SUB> &le; 2.5<br/>entropy = 0.106<br/>samples = 72<br/>value = [1, 71]>, fillcolor="#3c9ee5"] ;
79 -> 101 ;
102 [label=<entropy = 0.0<br/>samples = 1<br/>value = [1, 0]>, fillcolor="#e58139"] ;
101 -> 102 ;
103 [label=<entropy = 0.0<br/>samples = 71<br/>value = [0, 71]>, fillcolor="#399de5"] ;
101 -> 103 ;
104 [label=<X<SUB>19</SUB> &le; 3.5<br/>entropy = 1.0<br/>samples = 113<br/>value = [56, 57]>, fillcolor="#fcfdff"] ;
78 -> 104 ;
105 [label=<X<SUB>1</SUB> &le; 7.888<br/>entropy = 0.978<br/>samples = 92<br/>value = [38, 54]>, fillcolor="#c4e2f7"] ;
104 -> 105 ;
106 [label=<X<SUB>0</SUB> &le; 30.191<br/>entropy = 0.834<br/>samples = 34<br/>value = [9, 25]>, fillcolor="#80c0ee"] ;
105 -> 106 ;
107 [label=<X<SUB>19</SUB> &le; 1.5<br/>entropy = 0.758<br/>samples = 32<br/>value = [7, 25]>, fillcolor="#70b8ec"] ;
106 -> 107 ;
108 [label=<X<SUB>1</SUB> &le; 6.987<br/>entropy = 0.709<br/>samples = 31<br/>value = [6, 25]>, fillcolor="#69b5eb"] ;
107 -> 108 ;
109 [label=<entropy = 0.0<br/>samples = 1<br/>value = [1, 0]>, fillcolor="#e58139"] ;
108 -> 109 ;
110 [label=<X<SUB>1</SUB> &le; 7.523<br/>entropy = 0.65<br/>samples = 30<br/>value = [5, 25]>, fillcolor="#61b1ea"] ;
108 -> 110 ;
111 [label=<entropy = 0.0<br/>samples = 6<br/>value = [0, 6]>, fillcolor="#399de5"] ;
110 -> 111 ;
112 [label=<X<SUB>1</SUB> &le; 7.64<br/>entropy = 0.738<br/>samples = 24<br/>value = [5, 19]>, fillcolor="#6db7ec"] ;
110 -> 112 ;
113 [label=<X<SUB>0</SUB> &le; 26.441<br/>entropy = 0.918<br/>samples = 3<br/>value = [2, 1]>, fillcolor="#f2c09c"] ;
112 -> 113 ;
114 [label=<entropy = 0.0<br/>samples = 1<br/>value = [0, 1]>, fillcolor="#399de5"] ;
113 -> 114 ;
115 [label=<entropy = 0.0<br/>samples = 2<br/>value = [2, 0]>, fillcolor="#e58139"] ;
113 -> 115 ;
116 [label=<X<SUB>0</SUB> &le; 15.0<br/>entropy = 0.592<br/>samples = 21<br/>value = [3, 18]>, fillcolor="#5aade9"] ;
112 -> 116 ;
117 [label=<entropy = 0.0<br/>samples = 1<br/>value = [1, 0]>, fillcolor="#e58139"] ;
116 -> 117 ;
118 [label=<entropy = 0.469<br/>samples = 20<br/>value = [2, 18]>, fillcolor="#4fa8e8"] ;
116 -> 118 ;
119 [label=<entropy = 0.0<br/>samples = 1<br/>value = [1, 0]>, fillcolor="#e58139"] ;
107 -> 119 ;
120 [label=<entropy = 0.0<br/>samples = 2<br/>value = [2, 0]>, fillcolor="#e58139"] ;
106 -> 120 ;
121 [label=<X<SUB>1</SUB> &le; 10.825<br/>entropy = 1.0<br/>samples = 58<br/>value = [29, 29]>, fillcolor="#ffffff"] ;
105 -> 121 ;
122 [label=<X<SUB>19</SUB> &le; 0.5<br/>entropy = 0.881<br/>samples = 20<br/>value = [14, 6]>, fillcolor="#f0b78e"] ;
121 -> 122 ;
123 [label=<X<SUB>0</SUB> &le; 19.0<br/>entropy = 0.971<br/>samples = 15<br/>value = [9, 6]>, fillcolor="#f6d5bd"] ;
122 -> 123 ;
124 [label=<entropy = 0.0<br/>samples = 2<br/>value = [0, 2]>, fillcolor="#399de5"] ;
123 -> 124 ;
125 [label=<X<SUB>0</SUB> &le; 24.5<br/>entropy = 0.89<br/>samples = 13<br/>value = [9, 4]>, fillcolor="#f1b991"] ;
123 -> 125 ;
126 [label=<entropy = 0.0<br/>samples = 4<br/>value = [4, 0]>, fillcolor="#e58139"] ;
125 -> 126 ;
127 [label=<X<SUB>0</SUB> &le; 27.5<br/>entropy = 0.991<br/>samples = 9<br/>value = [5, 4]>, fillcolor="#fae6d7"] ;
125 -> 127 ;
128 [label=<entropy = 0.0<br/>samples = 2<br/>value = [0, 2]>, fillcolor="#399de5"] ;
127 -> 128 ;
129 [label=<X<SUB>1</SUB> &le; 8.673<br/>entropy = 0.863<br/>samples = 7<br/>value = [5, 2]>, fillcolor="#efb388"] ;
127 -> 129 ;
130 [label=<entropy = 0.0<br/>samples = 4<br/>value = [4, 0]>, fillcolor="#e58139"] ;
129 -> 130 ;
131 [label=<entropy = 0.918<br/>samples = 3<br/>value = [1, 2]>, fillcolor="#9ccef2"] ;
129 -> 131 ;
132 [label=<entropy = 0.0<br/>samples = 5<br/>value = [5, 0]>, fillcolor="#e58139"] ;
122 -> 132 ;
133 [label=<X<SUB>1</SUB> &le; 13.935<br/>entropy = 0.968<br/>samples = 38<br/>value = [15, 23]>, fillcolor="#baddf6"] ;
121 -> 133 ;
134 [label=<entropy = 0.0<br/>samples = 6<br/>value = [0, 6]>, fillcolor="#399de5"] ;
133 -> 134 ;
135 [label=<X<SUB>1</SUB> &le; 14.852<br/>entropy = 0.997<br/>samples = 32<br/>value = [15, 17]>, fillcolor="#e8f3fc"] ;
133 -> 135 ;
136 [label=<entropy = 0.0<br/>samples = 6<br/>value = [6, 0]>, fillcolor="#e58139"] ;
135 -> 136 ;
137 [label=<X<SUB>4</SUB> &le; 0.5<br/>entropy = 0.931<br/>samples = 26<br/>value = [9, 17]>, fillcolor="#a2d1f3"] ;
135 -> 137 ;
138 [label=<X<SUB>0</SUB> &le; 30.941<br/>entropy = 0.619<br/>samples = 13<br/>value = [2, 11]>, fillcolor="#5dafea"] ;
137 -> 138 ;
139 [label=<X<SUB>1</SUB> &le; 15.373<br/>entropy = 0.414<br/>samples = 12<br/>value = [1, 11]>, fillcolor="#4ba6e7"] ;
138 -> 139 ;
140 [label=<entropy = 1.0<br/>samples = 2<br/>value = [1, 1]>, fillcolor="#ffffff"] ;
139 -> 140 ;
141 [label=<entropy = 0.0<br/>samples = 10<br/>value = [0, 10]>, fillcolor="#399de5"] ;
139 -> 141 ;
142 [label=<entropy = 0.0<br/>samples = 1<br/>value = [1, 0]>, fillcolor="#e58139"] ;
138 -> 142 ;
143 [label=<X<SUB>1</SUB> &le; 17.25<br/>entropy = 0.996<br/>samples = 13<br/>value = [7, 6]>, fillcolor="#fbede3"] ;
137 -> 143 ;
144 [label=<X<SUB>19</SUB> &le; 1.5<br/>entropy = 0.65<br/>samples = 6<br/>value = [1, 5]>, fillcolor="#61b1ea"] ;
143 -> 144 ;
145 [label=<entropy = 0.918<br/>samples = 3<br/>value = [1, 2]>, fillcolor="#9ccef2"] ;
144 -> 145 ;
146 [label=<entropy = 0.0<br/>samples = 3<br/>value = [0, 3]>, fillcolor="#399de5"] ;
144 -> 146 ;
147 [label=<X<SUB>1</SUB> &le; 20.369<br/>entropy = 0.592<br/>samples = 7<br/>value = [6, 1]>, fillcolor="#e9965a"] ;
143 -> 147 ;
148 [label=<entropy = 0.0<br/>samples = 4<br/>value = [4, 0]>, fillcolor="#e58139"] ;
147 -> 148 ;
149 [label=<entropy = 0.918<br/>samples = 3<br/>value = [2, 1]>, fillcolor="#f2c09c"] ;
147 -> 149 ;
150 [label=<X<SUB>19</SUB> &le; 5.5<br/>entropy = 0.592<br/>samples = 21<br/>value = [18, 3]>, fillcolor="#e9965a"] ;
104 -> 150 ;
151 [label=<entropy = 0.0<br/>samples = 12<br/>value = [12, 0]>, fillcolor="#e58139"] ;
150 -> 151 ;
152 [label=<X<SUB>1</SUB> &le; 19.6<br/>entropy = 0.918<br/>samples = 9<br/>value = [6, 3]>, fillcolor="#f2c09c"] ;
150 -> 152 ;
153 [label=<entropy = 0.0<br/>samples = 1<br/>value = [0, 1]>, fillcolor="#399de5"] ;
152 -> 153 ;
154 [label=<X<SUB>1</SUB> &le; 31.331<br/>entropy = 0.811<br/>samples = 8<br/>value = [6, 2]>, fillcolor="#eeab7b"] ;
152 -> 154 ;
155 [label=<entropy = 0.0<br/>samples = 4<br/>value = [4, 0]>, fillcolor="#e58139"] ;
154 -> 155 ;
156 [label=<X<SUB>19</SUB> &le; 8.0<br/>entropy = 1.0<br/>samples = 4<br/>value = [2, 2]>, fillcolor="#ffffff"] ;
154 -> 156 ;
157 [label=<entropy = 0.0<br/>samples = 2<br/>value = [0, 2]>, fillcolor="#399de5"] ;
156 -> 157 ;
158 [label=<entropy = 0.0<br/>samples = 2<br/>value = [2, 0]>, fillcolor="#e58139"] ;
156 -> 158 ;
}